//Numpy array shape [144, 20]
//Min -1.179244875908
//Max 0.797997951508
//Number of zeros 0

#ifndef W7_H_
#define W7_H_

#ifdef LOAD_WEIGHTS_FROM_TXT
weight7_t w7[2880];
#else
weight7_t w7[2880] = {1.15429687500, -2.34375000000, 5.65429687500, -4.01757812500, -3.14941406250, -1.88476562500, -2.54492187500, 2.48925781250, -13.67724609375, 5.41406250000, 8.28125000000, -2.07812500000, 2.45703125000, 11.67138671875, 1.52343750000, -7.57568359375, 0.08349609375, -10.73876953125, -11.21484375000, -15.16503906250, -1.88183593750, 9.17968750000, 3.44433593750, -1.07910156250, 0.28564453125, 14.44287109375, 9.18115234375, -2.22753906250, 2.78808593750, 5.23291015625, -7.11425781250, -12.21093750000, -8.18701171875, 1.59179687500, -2.57080078125, -1.76123046875, 6.15185546875, 5.39990234375, 6.61279296875, 1.73046875000, 1.21484375000, 9.23486328125, -11.36181640625, 3.78710937500, 10.50537109375, -10.97607421875, 3.09228515625, -11.97363281250, 3.17382812500, 15.56982421875, -5.65576171875, -6.33447265625, -2.57128906250, 4.03369140625, 3.21875000000, -13.48925781250, 7.84814453125, -13.09423828125, -8.04931640625, 3.93164062500, -7.44824218750, 3.21142578125, -1.77685546875, -1.69189453125, 0.84472656250, -8.28369140625, 4.72509765625, -4.97607421875, -1.84033203125, 3.31542968750, 2.75878906250, 0.53955078125, -5.64501953125, -3.75195312500, -15.99951171875, -1.58251953125, 6.86621093750, -9.75292968750, -6.34423828125, 8.24511718750, 6.69873046875, -1.80810546875, 11.83349609375, 8.01953125000, 0.18212890625, 4.13818359375, -4.36621093750, -11.84472656250, -15.36718750000, 14.21826171875, -0.90283203125, 1.11865234375, -1.43115234375, 2.30175781250, 0.12109375000, 0.54248046875, -1.41455078125, 1.11767578125, 3.13085937500, -5.95068359375, -0.13330078125, -6.49462890625, -1.64599609375, 4.35302734375, 1.43701171875, 1.93945312500, 14.68554687500, -6.57128906250, -1.45605468750, 4.58349609375, -5.75390625000, 11.79785156250, 10.84960937500, 15.68164062500, 5.44580078125, 4.26708984375, 1.64794921875, -3.41601562500, -4.69726562500, -3.84228515625, 1.44775390625, -3.31445312500, 9.27685546875, -2.40478515625, -8.49707031250, 4.28564453125, 3.20800781250, -8.76416015625, 5.92431640625, -5.87109375000, -2.66015625000, -1.68847656250, 1.47460937500, -4.27978515625, 14.78662109375, 0.60498046875, 9.24169921875, 4.98681640625, -3.05468750000, 1.66162109375, 0.96240234375, -6.91748046875, -12.23828125000, -11.08203125000, 2.83203125000, -7.46826171875, 1.64013671875, -2.93798828125, 1.71923828125, 6.03320312500, 0.82861328125, -1.37597656250, -3.45214843750, -5.43017578125, -0.70458984375, 1.09033203125, -4.67871093750, -2.15917968750, 0.43847656250, -12.41259765625, -2.92431640625, -0.39550781250, -0.83642578125, -5.61181640625, 1.30517578125, -3.02001953125, 2.87207031250, 6.85693359375, 1.08203125000, 0.48193359375, -5.82861328125, -1.21875000000, -2.91748046875, -1.54199218750, 3.35937500000, 2.50634765625, 4.56884765625, -5.78710937500, -5.75781250000, -6.27929687500, -0.92724609375, -7.78710937500, 0.52734375000, -1.76806640625, -0.84472656250, -10.80615234375, -2.73388671875, 1.83984375000, -3.38183593750, -2.65527343750, 5.12158203125, 8.03710937500, 1.40234375000, -3.39697265625, -8.19628906250, -1.26904296875, 5.69775390625, 6.74658203125, -5.60742187500, -2.33886718750, -5.16992187500, 1.66210937500, 1.89013671875, -0.34033203125, -3.72167968750, -4.03955078125, -6.41455078125, 3.22363281250, -0.75878906250, -2.42041015625, -4.44091796875, -6.27001953125, 2.08691406250, -1.75341796875, -1.54882812500, -3.07470703125, -9.14013671875, 2.25390625000, -6.07421875000, 11.10937500000, 7.99121093750, 4.38574218750, -0.32763671875, -4.45068359375, -0.30810546875, 2.68701171875, 10.90185546875, 0.76513671875, -4.50195312500, -2.64160156250, 4.72314453125, 6.94580078125, -0.14257812500, 3.47998046875, -8.02392578125, 5.54150390625, -15.99951171875, -0.93750000000, 6.03125000000, 2.07324218750, -3.37451171875, -6.69580078125, 0.16748046875, 2.45263671875, 5.47509765625, 6.99414062500, -1.06005859375, -3.55957031250, 2.16894531250, 3.31250000000, 12.11865234375, -1.00244140625, -6.96142578125, 7.15283203125, -6.44287109375, -0.61474609375, 4.17236328125, 12.72070312500, -0.71044921875, -0.08642578125, -3.23046875000, 1.87011718750, -3.47802734375, 1.48828125000, -10.01708984375, -0.98144531250, 3.52246093750, -5.99658203125, 3.70214843750, -11.22021484375, 5.92480468750, 4.70214843750, 5.49804687500, -6.72705078125, 5.57275390625, 10.68310546875, 0.34863281250, 0.03906250000, -14.53125000000, 1.35986328125, 1.30566406250, 7.89355468750, -3.04345703125, -1.64648437500, -2.43603515625, -6.23486328125, 2.12988281250, -0.00878906250, 0.85839843750, 1.85644531250, -2.90527343750, 2.11474609375, 2.39648437500, 3.11181640625, 2.61230468750, 0.16601562500, 0.32666015625, 2.08300781250, 3.85351562500, 1.36767578125, 2.69335937500, -0.39697265625, 1.54931640625, 5.37841796875, 2.75927734375, 1.32958984375, 2.34277343750, 3.60009765625, 3.18310546875, 0.51367187500, 1.09863281250, -1.09765625000, 1.45556640625, 2.44677734375, 2.47705078125, -1.14501953125, -1.87304687500, -3.34082031250, 1.20996093750, 3.94531250000, 2.47314453125, 4.02441406250, 0.00195312500, 2.78125000000, 2.05175781250, 1.83935546875, 2.89794921875, 1.89843750000, 1.32275390625, 2.01513671875, 0.84960937500, 1.45019531250, 2.94433593750, -1.01416015625, 1.64257812500, -5.20654296875, -1.91015625000, 6.78466796875, -8.97949218750, 5.19189453125, 0.18847656250, -0.61523437500, 2.40429687500, -4.54833984375, 3.61767578125, 1.00732421875, 2.52490234375, -0.88867187500, -0.71679687500, 4.11523437500, 3.89306640625, 1.32519531250, 2.81103515625, 1.54833984375, -4.65966796875, -6.03906250000, -7.18212890625, 2.53564453125, 0.20654296875, -1.30273437500, 3.17724609375, 2.63525390625, 2.96679687500, 2.60546875000, 0.26660156250, 2.33984375000, 1.39746093750, 2.10693359375, -0.52929687500, 2.09619140625, 1.84179687500, 2.33984375000, 0.94189453125, 0.66796875000, 2.12255859375, 0.35302734375, -0.78613281250, 0.35009765625, 1.77539062500, 1.31835937500, 2.21875000000, 3.49853515625, 0.17089843750, 0.60351562500, 0.14160156250, 1.08203125000, -2.39257812500, 0.61523437500, -0.25000000000, -0.39746093750, 2.36718750000, 2.99316406250, 1.64697265625, 4.33203125000, -0.16699218750, -2.97021484375, -0.23876953125, 0.96923828125, -1.86669921875, 3.21435546875, 1.30371093750, 0.08789062500, 1.91748046875, 2.01513671875, 0.66796875000, -0.22216796875, -1.32812500000, -0.62548828125, -4.67333984375, -6.13574218750, -7.14697265625, 1.33691406250, 0.39355468750, 0.74804687500, 1.84179687500, -8.17382812500, 1.23388671875, 1.78320312500, 1.65527343750, 5.66699218750, 1.25537109375, 2.49023437500, 1.18896484375, -3.38671875000, 0.71093750000, 4.14404296875, -4.47119140625, -15.99951171875, 4.13134765625, 6.01025390625, -4.02050781250, -2.36669921875, 0.43212890625, 0.76318359375, 2.62402343750, 4.48974609375, 0.79882812500, -6.35107421875, 5.40234375000, -1.65380859375, 6.00048828125, -1.72998046875, -2.65722656250, -1.91015625000, 3.00097656250, -1.92041015625, -1.74658203125, -4.37597656250, 1.57421875000, 3.07226562500, -0.84179687500, -0.76464843750, 0.66650390625, 0.43457031250, -0.72460937500, -2.50341796875, 1.35205078125, 2.14257812500, -1.17382812500, 1.69677734375, 0.66113281250, -3.95947265625, 1.31542968750, 0.41259765625, -0.79394531250, -0.44726562500, -15.99951171875, 3.38232421875, 2.66162109375, 5.62158203125, 0.29785156250, -3.73388671875, -6.31787109375, -2.56250000000, -0.41992187500, -11.19921875000, -2.13183593750, -1.60400390625, 0.69433593750, -6.29687500000, -0.20458984375, 4.41894531250, 1.37792968750, -0.12988281250, 2.17236328125, -8.70312500000, 4.97900390625, 3.98291015625, 3.45214843750, -0.37353515625, -2.85742187500, 3.46923828125, -3.01953125000, 5.26416015625, -0.64404296875, -0.49169921875, -3.87500000000, -6.61230468750, -0.02636718750, -2.69140625000, -0.55566406250, -3.07226562500, -3.07324218750, -3.83300781250, 0.33837890625, 0.70019531250, 0.42773437500, -0.95800781250, -1.49560546875, -10.14697265625, -3.70263671875, -1.30810546875, -1.94970703125, -0.43896484375, -6.34863281250, 0.03857421875, -0.96728515625, -5.75048828125, -4.19238281250, -1.88574218750, 2.02832031250, 3.73876953125, 0.71875000000, 5.69824218750, -6.08886718750, -1.98437500000, 2.03125000000, -7.17041015625, -6.82519531250, -3.30224609375, -4.26904296875, 3.47021484375, 4.25439453125, -12.33691406250, 0.62109375000, -6.35986328125, -1.36865234375, 0.87402343750, -2.01123046875, 0.42724609375, -0.01269531250, -0.21093750000, -6.02587890625, 0.34912109375, -6.26708984375, 4.66162109375, 0.88330078125, 0.78466796875, 3.00732421875, -1.45800781250, 0.29541015625, -4.50634765625, -1.60888671875, -4.25000000000, -3.95458984375, 0.95556640625, 0.57617187500, -1.65039062500, 2.19873046875, 2.23632812500, 1.36816406250, -3.35498046875, 3.04150390625, 1.61865234375, -6.55957031250, -7.30664062500, -2.21826171875, 0.67675781250, 0.81201171875, -2.84277343750, 0.52734375000, -0.93359375000, 1.77880859375, -0.44189453125, 6.15966796875, 1.99267578125, -3.33300781250, -4.44482421875, 0.34912109375, 3.47851562500, 2.69287109375, -7.19384765625, 7.98681640625, -1.22753906250, -4.40722656250, -3.82128906250, -6.89453125000, 11.03515625000, 0.75585937500, -2.30273437500, -8.27832031250, -2.64746093750, 0.97021484375, 3.93652343750, 0.30126953125, 1.47021484375, 2.70605468750, 4.62890625000, 6.37744140625, -4.91748046875, -3.06982421875, 12.27832031250, 1.77539062500, -4.48730468750, 4.79980468750, 2.23779296875, -1.66796875000, 1.50439453125, 1.45996093750, -3.93017578125, 4.53320312500, -5.28173828125, 2.76074218750, -1.57470703125, -1.28564453125, 2.78857421875, 2.31982421875, -9.42333984375, -7.11181640625, -3.86914062500, -0.95312500000, -5.00439453125, -15.81005859375, -1.45166015625, -0.82958984375, -10.32031250000, -7.17968750000, 3.62500000000, -15.99951171875, 0.21826171875, 4.43896484375, -2.00000000000, -0.34277343750, 1.54248046875, 1.62451171875, 11.92138671875, 0.43798828125, 3.89062500000, -4.09667968750, 1.20849609375, -3.10156250000, 5.24462890625, 0.36621093750, 5.05224609375, 2.06445312500, -2.04003906250, 10.58740234375, -3.19580078125, 2.70312500000, 3.97656250000, -3.58154296875, 0.64062500000, 1.28515625000, -6.68261718750, 4.60888671875, 4.56201171875, 2.67285156250, 7.30957031250, 8.04248046875, -1.22558593750, -1.95849609375, 8.00927734375, -3.56982421875, -7.59570312500, -7.59082031250, -2.90283203125, -3.47705078125, 1.83056640625, 2.57568359375, 0.50292968750, 1.59912109375, 0.52539062500, 6.03466796875, 4.15625000000, 4.21923828125, 1.02734375000, 0.12890625000, 4.28906250000, -4.30468750000, -1.65917968750, -8.46191406250, 0.51416015625, -6.95898437500, -8.14990234375, 2.44091796875, 0.53515625000, -3.33398437500, -0.70458984375, -3.46337890625, -1.22314453125, -0.17578125000, -5.16259765625, 7.71386718750, 1.08349609375, -2.34472656250, -5.22607421875, -1.11132812500, -2.70996093750, 4.46875000000, -7.97949218750, -3.52490234375, -4.59082031250, 2.32177734375, 0.09423828125, -9.72851562500, 0.03076171875, 0.95263671875, -2.02880859375, -4.42529296875, 9.12792968750, 3.14599609375, -7.29345703125, -5.86474609375, -6.21533203125, -2.64599609375, -6.17382812500, -0.55371093750, -2.48339843750, -6.29785156250, -4.13330078125, -1.08984375000, -2.09765625000, 5.08642578125, -2.24462890625, 0.15332031250, -2.22900390625, 1.90039062500, -3.85546875000, 7.30419921875, 2.36669921875, -2.82763671875, -4.07373046875, -1.90625000000, -15.99951171875, -4.22900390625, -0.79492187500, 3.67333984375, 1.77587890625, 2.50976562500, 1.36865234375, 9.42871093750, 1.30810546875, 4.64892578125, 3.02050781250, 2.30761718750, -4.27441406250, 2.41064453125, 1.46386718750, 0.21972656250, -2.64355468750, -1.78857421875, -1.31591796875, 1.88476562500, -1.54003906250, 0.37646484375, -3.11816406250, -0.93994140625, -1.63232421875, 6.92236328125, -6.72949218750, -5.70117187500, -3.41699218750, 0.11083984375, -8.33007812500, -7.32910156250, 0.28808593750, 0.00048828125, 0.03125000000, -1.58837890625, 0.94384765625, 5.00439453125, -2.11523437500, 4.32177734375, 2.67333984375, -0.29296875000, 2.34228515625, 5.90283203125, -1.54199218750, -0.06689453125, 4.43750000000, -0.48583984375, -1.66210937500, -1.61621093750, 0.24902343750, 2.38916015625, 1.67236328125, 0.57763671875, -0.52148437500, 0.47851562500, 0.21728515625, 0.69042968750, 1.18408203125, -1.22509765625, -1.94042968750, -0.84277343750, -0.02978515625, -1.38378906250, 2.11132812500, 2.39257812500, 7.53564453125, 3.96142578125, 0.67626953125, -2.12158203125, -3.04003906250, -2.57861328125, 3.43457031250, 2.86865234375, -7.31152343750, -1.71044921875, -0.91894531250, -2.13720703125, -1.24365234375, 4.14257812500, 1.49511718750, -3.52343750000, -2.14746093750, 0.90917968750, -4.10498046875, 3.68847656250, 2.35937500000, -3.12597656250, -2.15722656250, -2.54589843750, -6.39550781250, 0.28564453125, 0.82617187500, 2.54833984375, 0.85009765625, 2.97460937500, 3.32177734375, 9.97656250000, -2.10498046875, 4.63525390625, 1.31347656250, -0.24072265625, -0.48339843750, -12.28710937500, 2.50292968750, -4.05810546875, -3.79589843750, 0.58984375000, 1.84667968750, -2.62841796875, 0.87451171875, 2.19873046875, -1.26708984375, -3.68017578125, 0.35888671875, -9.32666015625, 2.57470703125, -1.96435546875, 10.20947265625, 0.26464843750, -3.91894531250, -4.04296875000, 2.47119140625, -1.44042968750, -1.78173828125, -1.18652343750, -4.72314453125, 1.61132812500, -7.71484375000, 4.62402343750, 3.41210937500, 2.41064453125, -1.87304687500, -0.31640625000, 1.13720703125, 0.14550781250, -0.81835937500, 0.96289062500, 3.70898437500, -1.15771484375, 2.23144531250, 0.18896484375, -1.37402343750, 1.18212890625, 1.27636718750, 1.69091796875, 3.86474609375, -0.29833984375, -2.04296875000, 1.12646484375, -0.94580078125, -1.57910156250, 0.05126953125, 0.55566406250, -0.34667968750, -0.35791015625, 2.73583984375, 0.47412109375, 2.66162109375, 2.71289062500, 3.79443359375, -0.16894531250, 0.45312500000, 2.18750000000, -0.93115234375, -0.73779296875, 0.97314453125, 3.36669921875, 1.16699218750, -2.34521484375, 0.31005859375, 0.45996093750, -1.70263671875, -2.67041015625, 0.57421875000, 1.30468750000, -1.35449218750, -1.17138671875, -0.10595703125, 3.35400390625, -0.19335937500, 0.66113281250, 2.64404296875, -3.07226562500, -2.64648437500, 3.62451171875, 1.66357421875, -2.10791015625, 2.69531250000, -0.61474609375, 2.64746093750, -1.98437500000, -2.80810546875, -1.58398437500, -4.15136718750, 1.02783203125, -1.10009765625, 1.84277343750, 1.32080078125, 0.17431640625, 0.67382812500, 0.94091796875, -0.71142578125, 0.21386718750, 1.28515625000, -0.47070312500, -0.99218750000, 1.45703125000, 1.38330078125, 2.08740234375, -2.40576171875, -1.15771484375, -3.77587890625, -1.42431640625, -2.51708984375, 1.47753906250, -0.69970703125, -2.31640625000, 0.01708984375, -1.67089843750, 0.04882812500, 3.18164062500, -0.49121093750, -2.29345703125, 0.35742187500, 2.12890625000, 1.69287109375, -0.47265625000, -1.52832031250, -1.60107421875, -3.50537109375, -1.73828125000, -0.99658203125, -1.43066406250, -3.51269531250, 0.34277343750, 0.40966796875, -0.39941406250, 0.51025390625, 0.16992187500, -1.43994140625, 1.27734375000, 1.43505859375, -1.39013671875, 2.53515625000, -0.21337890625, -2.71630859375, -0.94824218750, -2.99853515625, 0.16650390625, -1.12402343750, 3.51464843750, 2.74316406250, 1.32617187500, -0.53417968750, 2.01025390625, 0.67773437500, -2.29541015625, -15.99951171875, 4.19775390625, -0.58300781250, 0.95849609375, 2.20117187500, -1.71142578125, -0.03271484375, -1.15527343750, 0.53857421875, 1.51513671875, -0.17968750000, 0.91162109375, 5.41552734375, -0.23583984375, 0.29541015625, 1.73535156250, -1.37402343750, -8.34326171875, -4.32031250000, -1.41601562500, 6.26513671875, 4.78710937500, -0.31347656250, -0.21386718750, 1.87744140625, -0.68652343750, 3.70947265625, 3.46289062500, 4.84326171875, -0.13134765625, -1.27294921875, 3.87255859375, 3.88134765625, 7.98730468750, 4.64746093750, 5.18798828125, 13.92089843750, 5.68066406250, -0.72314453125, -11.23193359375, -9.71191406250, -2.27490234375, 2.57666015625, 7.85449218750, -4.80517578125, -3.38183593750, -4.48828125000, 0.53759765625, 10.28710937500, 2.29345703125, 10.94580078125, -8.55908203125, -0.75537109375, -11.82080078125, -4.08007812500, -3.36767578125, 4.26318359375, 9.76611328125, -9.26220703125, -4.64941406250, -4.46142578125, 15.99951171875, 2.27294921875, 1.29345703125, 1.59863281250, -2.41943359375, -0.99121093750, 5.88720703125, -2.40136718750, 1.50341796875, 2.91406250000, -3.52978515625, 0.39599609375, -6.82324218750, -6.69726562500, -5.30908203125, -6.32568359375, -1.61669921875, 0.04394531250, -3.55419921875, 1.61132812500, -6.87255859375, -0.42138671875, 3.20947265625, 5.58544921875, 9.31689453125, 0.80761718750, 7.85742187500, -5.73535156250, -3.58300781250, 11.87939453125, 12.85400390625, 3.34228515625, 7.00097656250, -3.66796875000, -3.49609375000, 3.18994140625, -0.95410156250, 5.60058593750, 2.23437500000, 2.99072265625, -8.18066406250, -11.60449218750, 0.19628906250, -5.57666015625, 4.29248046875, -0.72021484375, -0.91259765625, -4.19433593750, -6.60107421875, 8.25146484375, 5.52880859375, 1.24804687500, -8.31835937500, -2.03271484375, -1.77636718750, -2.80029296875, 2.80810546875, 0.83789062500, -10.90332031250, -2.04687500000, -4.86328125000, 2.25634765625, 6.66699218750, 7.03027343750, -3.21679687500, 1.49121093750, -9.64306640625, -1.84423828125, 3.01660156250, -9.22656250000, 0.33251953125, 2.74121093750, 2.26318359375, -0.60937500000, -2.45654296875, -0.88916015625, -9.65283203125, -0.06152343750, -4.95849609375, -0.22998046875, 6.55859375000, 2.62548828125, 7.20458984375, 2.87402343750, -7.44628906250, 1.86328125000, 1.50097656250, -1.19677734375, 4.84375000000, -14.42382812500, -9.55566406250, 0.45166015625, 4.78417968750, 6.05566406250, -8.66015625000, -1.32666015625, -1.21679687500, 2.34521484375, 1.75537109375, 0.85498046875, 4.20654296875, -3.25976562500, -1.74072265625, 2.28759765625, -0.60644531250, -8.10351562500, -2.62109375000, 5.43457031250, -1.80664062500, -12.86669921875, 5.16406250000, -6.34423828125, 4.04345703125, -5.63671875000, -0.40332031250, 5.39404296875, -14.14501953125, -4.07617187500, 2.39306640625, 1.35107421875, -1.84570312500, -2.66210937500, -1.23632812500, 6.13427734375, -3.19677734375, 1.22607421875, 3.91796875000, 3.32910156250, -8.76562500000, -5.68066406250, -0.37597656250, -1.50732421875, 0.41845703125, 2.11718750000, -6.68505859375, -1.27832031250, 2.88623046875, 4.48437500000, -0.96386718750, 0.42675781250, -0.64746093750, -2.37939453125, -2.12792968750, 6.34033203125, 5.65625000000, 2.64794921875, -0.07519531250, -1.49609375000, 4.72412109375, -2.69482421875, 0.59375000000, -0.76123046875, -0.43701171875, -5.70654296875, 2.12939453125, -0.87695312500, 2.00488281250, 2.42138671875, 2.58203125000, 6.59912109375, 1.85253906250, 2.94384765625, 3.67968750000, -2.12207031250, 8.62500000000, 3.73437500000, 0.63720703125, 1.52099609375, 4.09863281250, 2.68408203125, -10.39501953125, -1.24365234375, -2.04980468750, 2.80615234375, 3.14208984375, 4.07031250000, -2.17236328125, -6.35253906250, 5.55859375000, -5.63330078125, 4.03222656250, -2.26220703125, 5.22265625000, 4.44580078125, -2.35595703125, 0.33984375000, -5.86767578125, -4.95019531250, -4.91552734375, -5.01953125000, 5.13916015625, -3.76074218750, -2.72607421875, -6.81640625000, 3.53076171875, -1.21142578125, 1.32324218750, 8.42529296875, -3.42822265625, 1.75488281250, 5.96093750000, 0.89404296875, 2.94628906250, -4.63281250000, -6.98291015625, 1.27978515625, -12.99414062500, 1.15917968750, -0.42333984375, -2.81542968750, -0.58496093750, -2.51123046875, -6.49462890625, 0.85107421875, 9.19091796875, 4.11083984375, -3.31396484375, -0.15625000000, 7.12158203125, 1.65283203125, 1.01269531250, -1.84570312500, 8.00732421875, 3.17236328125, -13.01513671875, -0.64599609375, -7.08837890625, 14.77880859375, -4.29296875000, 1.60937500000, -13.04101562500, -1.25390625000, -2.85302734375, -6.97753906250, -1.83789062500, 3.66650390625, 4.24707031250, -2.50634765625, 2.22119140625, 15.99951171875, 4.76611328125, 9.96875000000, -6.73144531250, 1.81298828125, -6.96630859375, 0.32568359375, -3.24511718750, 7.61816406250, -5.17626953125, -2.77783203125, -1.17138671875, 1.86328125000, 6.83740234375, 4.42382812500, -2.90966796875, -4.83544921875, -1.44384765625, -0.62988281250, -7.48974609375, 0.03027343750, -0.69775390625, -3.08642578125, -0.28369140625, 4.40966796875, -4.11718750000, 0.51367187500, -3.60693359375, -0.02148437500, 0.24414062500, -3.50488281250, 1.15917968750, 4.38769531250, -2.85449218750, 1.02294921875, 2.80419921875, -0.16796875000, -2.99414062500, -0.68896484375, -2.57617187500, -2.18066406250, 2.02685546875, 6.25439453125, 4.38330078125, -7.36230468750, -0.36767578125, 4.87988281250, -1.42773437500, -7.72607421875, -2.17480468750, 2.13574218750, -0.79931640625, -2.88037109375, 0.05322265625, 8.67187500000, -0.45751953125, 3.56884765625, -0.30468750000, 5.52343750000, 2.70361328125, 3.55126953125, 3.22119140625, 0.53564453125, -9.15332031250, 0.19189453125, 3.60058593750, 4.16992187500, 9.21972656250, -0.95947265625, -2.84912109375, 0.88964843750, -6.36279296875, -4.41162109375, 1.75732421875, -6.04687500000, -2.08496093750, -8.26416015625, 12.50585937500, 11.15234375000, 11.85351562500, -2.94531250000, 3.36962890625, 11.96289062500, 1.24462890625, -11.89062500000, -12.57177734375, -0.33251953125, 1.07519531250, -0.02636718750, 3.85839843750, 0.41748046875, 6.81738281250, 0.60986328125, -1.46142578125, 3.75634765625, -4.76025390625, -10.02246093750, -11.04785156250, -1.45996093750, -9.59033203125, 1.54882812500, -0.56298828125, -0.46142578125, -4.88574218750, -0.42578125000, -6.00195312500, 6.06884765625, 0.04345703125, -1.78759765625, -4.90771484375, -1.33300781250, 6.97119140625, -3.23583984375, -5.45361328125, 6.84814453125, -15.99951171875, 0.46777343750, 1.77587890625, -4.24853515625, 3.34228515625, 0.20556640625, 2.45751953125, -2.37890625000, -0.89550781250, -0.13330078125, 1.05419921875, 7.39160156250, 1.44140625000, -0.83691406250, -3.62451171875, 2.20410156250, 0.10693359375, 9.34033203125, -0.22998046875, -2.17919921875, -2.07080078125, -3.03222656250, -2.86328125000, 2.57714843750, -0.49072265625, 3.51416015625, -5.06738281250, 0.18310546875, 0.81103515625, 9.36914062500, 2.16455078125, -4.63134765625, -0.75244140625, -0.57763671875, 5.37646484375, -6.25927734375, -4.22363281250, -0.55664062500, 1.83007812500, 2.23095703125, -6.27294921875, 5.94677734375, 7.46533203125, 6.44970703125, -2.84375000000, 1.34765625000, 0.18457031250, 2.76123046875, 4.63476562500, 4.23339843750, 11.02587890625, 1.20898437500, 4.23339843750, -0.27148437500, 2.90625000000, -3.02929687500, 1.76855468750, -10.63623046875, -8.38281250000, 5.95556640625, 4.20312500000, -5.82763671875, 11.22705078125, -9.14990234375, 0.52099609375, 2.85693359375, 4.61279296875, 7.15039062500, 5.11425781250, -5.95703125000, 1.53857421875, -1.72900390625, -1.09375000000, -5.58154296875, -2.96923828125, -0.74414062500, -1.88574218750, 5.32470703125, -5.31250000000, -4.71728515625, -9.03662109375, -3.85791015625, 8.32714843750, -0.17041015625, 4.66162109375, 8.77197265625, 1.17480468750, -1.25537109375, -1.72021484375, 7.37841796875, 5.70947265625, -1.25878906250, -6.09863281250, -6.61914062500, -0.65917968750, 0.81738281250, -4.39794921875, -5.89355468750, -7.07275390625, -5.31884765625, 0.80126953125, 15.28710937500, -1.83300781250, 1.52001953125, -2.14843750000, -6.63281250000, 0.91455078125, -7.34667968750, 5.55712890625, -0.01074218750, -6.58593750000, -7.45117187500, 2.03271484375, 8.75537109375, -4.19189453125, 14.46191406250, -6.76171875000, 3.94628906250, 5.40869140625, 4.89648437500, 7.89404296875, 7.19775390625, 0.25488281250, -1.68554687500, -5.72607421875, 3.11865234375, 4.61621093750, -3.30419921875, -13.31591796875, -5.78222656250, 0.80517578125, 5.15332031250, -13.29296875000, -6.96679687500, 6.90087890625, -2.44140625000, -0.26171875000, 11.94775390625, 3.29785156250, 3.64990234375, 9.50781250000, -1.41699218750, 5.88964843750, -1.85839843750, -3.96142578125, -5.14550781250, -15.58691406250, -7.03027343750, -4.92041015625, -14.74462890625, 3.38818359375, 3.64843750000, 11.23144531250, 10.68359375000, 4.21875000000, 1.23974609375, 15.99951171875, 12.87402343750, 2.89208984375, -2.67382812500, -1.05224609375, 3.82812500000, 4.10791015625, -5.76708984375, -6.72167968750, -11.04150390625, 1.88916015625, -7.00244140625, -4.23730468750, -4.28955078125, -13.63427734375, -0.45898437500, 9.14697265625, 5.22705078125, 0.80078125000, 6.98046875000, -1.93994140625, -5.21582031250, 7.17675781250, -3.83837890625, 13.39208984375, 3.38378906250, -12.38623046875, -11.08398437500, -7.32031250000, 3.18164062500, 0.22509765625, -12.90136718750, 2.26904296875, -8.37548828125, 10.04003906250, -5.29687500000, -6.51220703125, 0.78662109375, 6.69677734375, -12.59570312500, 4.81445312500, -14.76074218750, -6.66748046875, 13.16552734375, 3.96386718750, -8.80957031250, -0.55224609375, 3.94921875000, -7.37402343750, -15.77001953125, -5.31152343750, 4.36669921875, 2.28564453125, 4.82031250000, -0.87304687500, 10.40722656250, -1.70458984375, -9.48925781250, 12.70361328125, -8.47900390625, 1.56201171875, 9.32910156250, -7.23779296875, -6.55078125000, 6.68115234375, -0.73828125000, 3.35302734375, -1.83593750000, -5.80517578125, 6.55810546875, 4.02539062500, -5.60205078125, 13.58251953125, 10.83251953125, -3.64208984375, 4.51806640625, 6.50683593750, -1.01464843750, 2.13720703125, 6.60595703125, -9.36669921875, -14.38525390625, -9.81884765625, 14.54492187500, -7.91210937500, -0.75781250000, 8.29589843750, -6.28320312500, 13.72021484375, 0.57568359375, 14.11083984375, 2.52783203125, -9.62646484375, 2.36523437500, 6.51806640625, 3.41406250000, 3.98291015625, 0.16748046875, 4.84130859375, 5.98193359375, 2.94580078125, 4.75976562500, -1.92089843750, -5.90380859375, 6.46777343750, 2.49267578125, -1.47900390625, 3.17382812500, 9.56542968750, 12.96923828125, -0.37500000000, -4.37255859375, 12.55566406250, -3.24707031250, -7.45458984375, -0.04931640625, -1.78417968750, -7.03369140625, -9.87695312500, 0.91601562500, 14.14746093750, 7.93798828125, 3.58837890625, 13.72509765625, 1.15673828125, 3.19238281250, 0.90820312500, 6.85693359375, -5.61718750000, -7.23046875000, 5.27978515625, 15.12207031250, 7.42480468750, -1.44531250000, 6.66455078125, 2.19042968750, -5.54296875000, 9.81591796875, 7.33691406250, 3.52148437500, 1.77294921875, 2.28515625000, 12.07958984375, 1.84228515625, 2.54345703125, -3.39404296875, -13.66064453125, 1.67919921875, 5.15039062500, -1.58544921875, 8.77294921875, 4.51757812500, 4.80908203125, 10.75927734375, -2.22949218750, 15.99951171875, -3.74658203125, -3.01269531250, 15.85839843750, -0.14843750000, 1.22119140625, 15.00195312500, -6.80517578125, -8.39843750000, -6.28857421875, -13.40429687500, 1.16748046875, -5.34619140625, -1.04492187500, 2.72607421875, -5.90527343750, -0.50439453125, -4.59619140625, -15.99951171875, 3.50000000000, -1.43310546875, -2.44042968750, 0.46191406250, -3.83984375000, -0.61474609375, -1.76123046875, 7.33544921875, 0.64501953125, 2.57275390625, 3.14306640625, -4.55517578125, 4.28662109375, 6.13818359375, -6.79833984375, -4.22216796875, 0.93164062500, -9.73144531250, -6.34960937500, -1.64599609375, 2.49023437500, -0.50439453125, -4.75732421875, -3.16406250000, 1.03173828125, 1.38330078125, -0.93408203125, -7.11523437500, -2.98339843750, -5.70751953125, 2.87402343750, 4.21142578125, -3.67822265625, 1.42919921875, -0.14453125000, 4.38330078125, -4.01611328125, -0.21728515625, 4.56591796875, 3.64843750000, -0.37792968750, 0.75927734375, 8.84863281250, -1.05761718750, -5.41699218750, -4.71191406250, 3.27246093750, -4.23437500000, -5.31835937500, 1.06347656250, -0.55322265625, -4.25292968750, 1.02294921875, 6.54101562500, 2.83642578125, 4.25146484375, 0.53417968750, -0.04980468750, 7.25195312500, 6.11035156250, 5.53759765625, 8.99267578125, -7.30517578125, -1.17089843750, 4.99804687500, 0.96923828125, -9.15625000000, 3.97998046875, 2.90136718750, -4.39208984375, -7.18750000000, -0.41894531250, 0.59033203125, -2.63085937500, -3.86132812500, -1.46533203125, 0.71191406250, -1.43750000000, -4.86474609375, 6.86279296875, -3.84912109375, -5.49658203125, 4.27880859375, 1.13134765625, -5.81835937500, 8.86425781250, -0.51806640625, -1.60791015625, -0.61181640625, 4.37792968750, 2.82324218750, -1.77148437500, 6.80371093750, -3.13183593750, 0.07958984375, -7.04638671875, -5.55664062500, 11.29638671875, -2.81591796875, 0.72265625000, 2.05761718750, -6.06982421875, -0.52832031250, -0.35839843750, 3.06835937500, 1.23486328125, -2.03027343750, 4.12792968750, 0.77587890625, 1.98583984375, 8.10107421875, -0.32568359375, 5.25585937500, 6.85937500000, -3.73046875000, 7.45019531250, -1.11474609375, -5.18945312500, 6.18652343750, 6.80371093750, 1.74169921875, -0.82666015625, 6.44238281250, 6.60595703125, 0.01953125000, 1.41796875000, 8.36083984375, 2.44677734375, 2.75390625000, 4.87939453125, 3.03076171875, 2.17285156250, 4.69140625000, 1.05175781250, -1.55224609375, 0.08105468750, 1.66552734375, 1.84130859375, -1.87744140625, 3.41601562500, -0.31250000000, 1.31201171875, 3.27978515625, 4.49609375000, 4.02636718750, 4.50927734375, 1.09619140625, 1.81152343750, -0.40429687500, -0.70019531250, 0.45703125000, -0.58349609375, -13.02099609375, 0.87597656250, 1.71630859375, 0.63916015625, 1.28759765625, 1.77880859375, 1.49462890625, 4.01806640625, 8.54199218750, 2.40429687500, 0.76855468750, 0.46093750000, 3.33886718750, 2.74609375000, 2.91015625000, 4.32617187500, -1.75341796875, 3.26806640625, -0.05712890625, -1.14111328125, 1.61474609375, -0.35205078125, 1.07617187500, 0.77392578125, 6.67822265625, -0.44091796875, 6.08007812500, 1.33105468750, 0.21484375000, -1.39843750000, 1.48876953125, 4.30273437500, -5.96679687500, 8.45751953125, -10.77294921875, -0.85546875000, -4.10058593750, 2.50341796875, 5.38574218750, -0.60986328125, 0.32373046875, 4.15136718750, 0.30566406250, -2.65966796875, -1.87451171875, -0.93017578125, 8.60742187500, -2.10937500000, -5.62402343750, -1.34277343750, -7.21289062500, -11.39208984375, -10.41503906250, -3.51806640625, -9.59179687500, -4.87304687500, 3.04589843750, 2.93994140625, -0.84326171875, 0.90869140625, 4.16357421875, 1.28369140625, -0.67675781250, 4.64111328125, 2.74121093750, 2.07910156250, 2.82177734375, -1.64550781250, -2.64404296875, -6.26855468750, -0.09326171875, -0.51660156250, 5.69726562500, -7.85742187500, 0.72949218750, -3.32373046875, 2.81787109375, 3.54052734375, 6.87792968750, 0.60498046875, 0.31005859375, 1.19726562500, 3.05615234375, 5.58837890625, -7.15039062500, 4.65136718750, 0.24560546875, -0.54931640625, 2.42382812500, -0.29833984375, 3.27343750000, -0.66259765625, 3.26953125000, 2.44433593750, -3.26855468750, 3.60009765625, 5.78955078125, -2.37060546875, 2.15820312500, 6.67187500000, 0.06445312500, 2.26074218750, 2.59228515625, 3.94873046875, -4.53222656250, -2.51953125000, -10.33105468750, 7.90234375000, 3.97412109375, -2.71972656250, -3.22021484375, -15.99951171875, 6.96386718750, 5.76367187500, 0.32031250000, 3.15722656250, -1.09570312500, -0.57080078125, -0.43945312500, 1.08935546875, 0.27197265625, -2.11962890625, -2.92871093750, -13.89208984375, 5.11962890625, 5.76806640625, -5.36816406250, -0.93408203125, -4.59472656250, 1.89550781250, 2.40234375000, 2.86962890625, 1.16113281250, -2.09423828125, -1.28320312500, -4.50634765625, 10.88964843750, -1.78906250000, -3.75488281250, 0.95507812500, -2.88720703125, 9.67724609375, 4.72705078125, 0.22998046875, 7.19824218750, -7.32812500000, 0.23388671875, -3.00341796875, 9.77539062500, -6.81640625000, -1.51953125000, -8.17773437500, -1.10986328125, -8.40966796875, -6.02050781250, -3.03759765625, -2.29248046875, -5.24609375000, -5.75781250000, 2.07519531250, -2.78955078125, 0.98095703125, 6.63427734375, 7.39550781250, -1.34521484375, -5.84228515625, -1.90527343750, 2.39550781250, -15.99951171875, -0.13671875000, -0.89013671875, -4.06494140625, 4.25488281250, -5.99414062500, 4.61621093750, 4.38085937500, -0.13818359375, -7.83056640625, 2.61376953125, -1.00244140625, 7.03076171875, -5.78466796875, -6.13671875000, -6.06787109375, -4.95361328125, -0.57324218750, 6.27832031250, -0.74365234375, -1.66699218750, 0.71435546875, 0.21093750000, -4.56689453125, 5.20019531250, 4.59667968750, 1.50341796875, 5.01562500000, -2.71826171875, 1.34863281250, -0.71142578125, 0.43847656250, -2.82666015625, -0.47509765625, 9.15527343750, 1.41015625000, 1.95410156250, -5.05371093750, -4.63476562500, 2.59082031250, -6.54882812500, 4.95117187500, -1.73291015625, -3.20263671875, -0.57958984375, 2.28076171875, -2.16455078125, -6.25195312500, 4.15380859375, -13.67089843750, 2.42626953125, 1.75341796875, 10.93066406250, 11.11474609375, 5.54785156250, -3.83203125000, -3.55615234375, 10.75732421875, 5.59082031250, 2.18554687500, -0.70849609375, -4.98437500000, 5.46484375000, -1.79394531250, 1.63476562500, -2.85644531250, 11.08447265625, -2.35156250000, -9.83837890625, -7.62158203125, -5.35742187500, 0.84814453125, 0.99658203125, -5.58251953125, -0.14501953125, 0.65283203125, 9.37597656250, 2.04199218750, 1.69238281250, -1.48388671875, -5.92871093750, -0.02685546875, -0.26025390625, 1.76513671875, -6.32324218750, -1.39453125000, 6.35839843750, -5.07617187500, 11.40087890625, -0.09228515625, -6.13623046875, 10.70263671875, -3.89355468750, 7.72070312500, 8.73095703125, -3.97509765625, 1.69824218750, 5.65625000000, -0.79101562500, -2.05566406250, 6.75048828125, 0.74755859375, 2.86328125000, 3.13867187500, 3.90283203125, -6.06884765625, 1.50585937500, -0.38964843750, -0.62500000000, -7.44921875000, -9.39599609375, -5.05908203125, -3.87646484375, -9.31738281250, -1.77343750000, -5.66796875000, 2.81103515625, -5.65820312500, -5.88623046875, -2.25341796875, -9.13378906250, -6.10839843750, 1.79248046875, 1.63525390625, 1.91406250000, -2.79394531250, 1.08496093750, 1.88232421875, -9.84765625000, -12.25390625000, -4.13476562500, -6.48242187500, -8.43554687500, -0.29345703125, -3.24414062500, -15.99951171875, -13.71630859375, -0.81201171875, -13.99804687500, -3.26855468750, -2.57324218750, 2.99023437500, -7.73388671875, -0.40429687500, -2.41210937500, -1.72412109375, -0.47265625000, 3.59912109375, 0.56396484375, -4.61474609375, -4.22558593750, -0.25585937500, 4.91455078125, -8.62597656250, 2.88085937500, -1.89208984375, 0.62890625000, -4.90478515625, 3.22509765625, -0.78369140625, 0.01806640625, 2.32666015625, -4.17871093750, 3.71435546875, 0.18554687500, -4.65185546875, 5.15820312500, 2.78222656250, 6.70458984375, 0.59570312500, -0.78027343750, 4.58251953125, 3.05224609375, 1.94140625000, 4.30566406250, 1.29394531250, 1.30224609375, -1.66406250000, -2.54052734375, 0.28564453125, 3.19433593750, -6.49755859375, -3.34082031250, 2.55029296875, 4.26171875000, -1.81445312500, -1.07958984375, -4.76562500000, 0.22558593750, -2.89990234375, 0.42236328125, 0.10351562500, -2.43701171875, -1.30761718750, -0.45605468750, 2.08886718750, 0.03076171875, -0.38574218750, 0.86474609375, -4.60937500000, -0.31542968750, 5.13134765625, 4.52587890625, -0.77246093750, 0.01269531250, 0.61181640625, -0.96630859375, 1.30810546875, -6.48681640625, 1.40478515625, -0.50830078125, -2.01025390625, 3.57128906250, 4.50195312500, -0.46533203125, 3.19238281250, 1.94531250000, 5.08837890625, 5.80371093750, 1.92529296875, 0.25781250000, 4.20751953125, 3.34667968750, 2.11279296875, 2.29248046875, 2.74316406250, 0.55712890625, -1.14453125000, -10.64257812500, -2.72363281250, 8.62402343750, 14.12011718750, 1.89111328125, 2.67431640625, 3.14355468750, 8.21191406250, 0.76269531250, 9.27099609375, 1.32568359375, 2.62744140625, 6.42724609375, 1.86523437500, 4.62304687500, 0.27050781250, -0.31054687500, 0.62304687500, -1.60742187500, 2.55957031250, 3.69531250000, -3.59619140625, 5.66210937500, 2.77392578125, -1.63427734375, -0.56884765625, 2.67382812500, -0.71582031250, 0.91015625000, -2.38769531250, -1.57470703125, -0.46191406250, 1.47314453125, 2.98388671875, 6.55419921875, 6.46728515625, -0.98535156250, -4.97705078125, 1.33544921875, 1.91748046875, 0.47705078125, 1.11230468750, -0.34716796875, 0.15380859375, 3.07226562500, -1.74365234375, -1.33349609375, 2.88378906250, -0.13427734375, 1.08544921875, 5.41113281250, -1.73291015625, -2.43554687500, 0.74902343750, -4.18554687500, 0.23828125000, 1.07226562500, 1.15380859375, -1.58447265625, -3.22314453125, 3.23730468750, 1.47998046875, -3.50585937500, -0.60888671875, -1.33740234375, 2.60986328125, -0.38574218750, 2.69433593750, 2.72070312500, -6.80664062500, 4.93115234375, 4.09179687500, 5.40478515625, -2.75439453125, 2.90185546875, 2.15185546875, 1.40820312500, -0.99902343750, -1.52587890625, -2.45703125000, -4.90771484375, 2.75537109375, -2.82080078125, -2.85449218750, 3.96386718750, 1.48681640625, 3.85449218750, 4.55517578125, 4.89355468750, 7.83789062500, 4.40283203125, -4.00585937500, 4.06054687500, -5.36572265625, 1.93896484375, 2.77294921875, -4.52148437500, -2.30859375000, -2.85937500000, 5.59375000000, -1.24609375000, 0.65771484375, 2.11767578125, 0.46728515625, 7.26220703125, 2.17822265625, 0.94775390625, 5.93310546875, -1.52099609375, -0.00292968750, 0.28125000000, -3.89501953125, 3.75439453125, 0.65576171875, -4.27392578125, -1.01806640625, 0.33251953125, 0.74169921875, 2.20898437500, -1.91845703125, 0.87939453125, -3.50341796875, 6.12500000000, 1.49853515625, 2.12890625000, 2.22705078125, -4.09033203125, 0.86572265625, 6.68554687500, 4.12207031250, 0.08398437500, 8.05126953125, 0.97460937500, -1.46044921875, -2.69042968750, -1.47509765625, 4.81884765625, 0.36230468750, -15.99951171875, -10.56152343750, 3.05029296875, 4.64550781250, 5.48046875000, 2.95068359375, -0.50488281250, -2.95214843750, 4.20751953125, 5.04101562500, 0.02197265625, 4.80273437500, -0.05957031250, 5.53076171875, -0.42919921875, 3.84912109375, 1.76953125000, -5.11621093750, -4.31835937500, -2.20996093750, -0.35839843750, 9.18212890625, -3.76855468750, 3.94824218750, 2.03857421875, 2.85498046875, -4.08154296875, -5.51123046875, 3.02148437500, -9.48681640625, -3.09130859375, 0.80761718750, 0.34863281250, -1.15820312500, 2.05566406250, 0.48632812500, -3.26611328125, 0.25683593750, 0.52343750000, -1.24511718750, 0.52832031250, -2.13476562500, -1.76123046875, 11.05078125000, -5.66015625000, 6.62597656250, -8.16406250000, -3.20703125000, -8.63964843750, -3.20849609375, 7.80078125000, 0.89843750000, 1.75439453125, -7.58154296875, 2.56591796875, 1.49609375000, 5.27294921875, 6.04687500000, -7.53808593750, -9.05126953125, 4.32177734375, 6.64746093750, 1.01953125000, 2.00439453125, -6.32763671875, -10.42968750000, 3.32666015625, -5.85595703125, 6.12207031250, -9.00878906250, -5.86718750000, -2.92431640625, -11.14892578125, 2.14892578125, 0.76611328125, 9.56347656250, 6.42285156250, -5.14794921875, 2.21728515625, 3.02978515625, -0.35644531250, -3.03222656250, -9.05126953125, -7.17431640625, -2.27978515625, -0.53271484375, -10.22802734375, -8.36328125000, 3.34277343750, -4.88427734375, 0.48583984375, -3.33740234375, -0.39160156250, -8.10205078125, 9.00244140625, -4.62500000000, -1.18212890625, 0.68164062500, -3.29101562500, 10.80322265625, 10.23486328125, -0.70800781250, 2.16748046875, 7.91601562500, -8.65087890625, -11.21582031250, -4.40234375000, 4.14794921875, 15.99951171875, -3.11669921875, -6.46582031250, 0.29736328125, 3.93896484375, -4.37207031250, 10.13134765625, 7.35498046875, -1.88574218750, -2.19921875000, -5.97070312500, 0.05371093750, 5.81005859375, -13.78369140625, -5.88476562500, 4.95898437500, 7.17626953125, -1.36523437500, -9.66210937500, -11.57519531250, -8.64453125000, -8.35058593750, 1.00830078125, -5.97509765625, 0.09423828125, 3.19531250000, -7.34521484375, 9.61425781250, -1.74609375000, -8.42773437500, 2.09033203125, 5.53759765625, -6.01660156250, -2.97607421875, 0.06250000000, -3.82177734375, 4.03955078125, 2.44775390625, 2.91406250000, -0.53027343750, -0.41308593750, -4.13818359375, -6.15673828125, -7.49121093750, -8.60791015625, 8.54589843750, -1.17675781250, -13.08300781250, 3.13720703125, 3.12500000000, -2.81152343750, -9.02734375000, -6.52441406250, -7.59033203125, -10.34326171875, 1.39257812500, 2.33447265625, -2.51464843750, 9.59716796875, 3.14013671875, -1.26074218750, 3.87646484375, -1.06591796875, 0.88574218750, 1.93896484375, -1.12353515625, 4.27929687500, 4.70166015625, -7.56054687500, -3.40234375000, -11.30273437500, -5.91552734375, 5.03320312500, -11.76123046875, -1.86572265625, -0.17822265625, -1.30566406250, -8.61181640625, -6.06591796875, -6.88574218750, 2.46972656250, -11.43701171875, -1.03369140625, -2.82031250000, 7.81787109375, 0.01220703125, -7.02050781250, 6.33105468750, -2.36523437500, 2.93408203125, 5.08935546875, -6.36425781250, -8.00878906250, -2.39208984375, -11.52099609375, -2.36962890625, 2.51757812500, 1.94482421875, -1.87890625000, -8.30908203125, 4.88134765625, 8.35400390625, -5.69824218750, -4.40527343750, -6.35595703125, -13.61865234375, -5.64892578125, -4.23339843750, 6.63916015625, -7.79736328125, 4.51562500000, 3.63818359375, -1.10937500000, -3.90332031250, 2.10888671875, 3.54931640625, -2.84326171875, -7.31396484375, -3.11035156250, -1.99560546875, -4.46923828125, -14.68261718750, -4.44189453125, -6.58691406250, 1.23974609375, 0.71337890625, -6.58398437500, -4.13232421875, -1.46289062500, -12.56591796875, -1.38671875000, 5.11572265625, -11.41845703125, 1.98095703125, -1.10107421875, -2.75097656250, -8.13134765625, -2.89794921875, -9.52343750000, 2.46923828125, -7.08398437500, 5.52636718750, -2.52148437500, -4.46875000000, -9.33544921875, 6.43359375000, 5.38134765625, 2.77685546875, -3.83251953125, 2.38378906250, -3.71679687500, 0.96630859375, -2.55566406250, -4.05029296875, -7.81201171875, -0.82617187500, 4.97412109375, -7.02734375000, -15.99951171875, 3.70849609375, -0.06396484375, 3.77343750000, 5.40136718750, -2.08300781250, 1.45751953125, -4.84033203125, -11.54052734375, 0.98339843750, 1.18164062500, 2.52832031250, -9.71728515625, 8.60205078125, -4.18017578125, -13.49755859375, -5.78173828125, -5.16064453125, -3.02636718750, -3.17236328125, -6.06103515625, 4.54052734375, 3.38183593750, 0.18261718750, 3.12451171875, -2.53710937500, -8.27978515625, -2.75585937500, 0.06347656250, 3.70898437500, -4.54492187500, -6.67333984375, -7.52587890625, -7.45703125000, 9.34814453125, -1.17675781250, 3.06933593750, -1.69384765625, -3.64208984375, 1.74365234375, -3.96533203125, -6.61376953125, -1.99853515625, -3.32080078125, -3.65869140625, -1.00830078125, -3.23486328125, -11.85302734375, 6.05859375000, -0.52880859375, -1.26074218750, 1.02539062500, -5.67724609375, -8.26269531250, 5.10888671875, 0.42773437500, -2.62304687500, -0.55273437500, 3.81689453125, 4.89990234375, -2.12158203125, 1.52880859375, -10.41943359375, -2.08740234375, -9.16992187500, -7.25781250000, 1.65136718750, 0.65136718750, -2.43945312500, 0.93505859375, -3.10937500000, 1.09228515625, -7.85986328125, 6.44287109375, 4.56689453125, 3.60791015625, 5.72070312500, 5.06591796875, -1.17089843750, 0.91113281250, -10.39501953125, 4.87597656250, 1.08251953125, -1.91601562500, 2.56982421875, 1.73193359375, -0.93310546875, -2.87646484375, -8.36181640625, -3.65722656250, -1.27783203125, -0.23242187500, -1.29199218750, 3.60253906250, 5.42431640625, 4.93505859375, 2.92480468750, 1.11230468750, 3.15625000000, 1.98144531250, 0.77246093750, -1.60351562500, -2.49804687500, 0.87011718750, -2.61083984375, 0.37158203125, -1.34912109375, 3.94091796875, 5.14599609375, -2.14501953125, -3.09033203125, 3.80175781250, 0.05273437500, 1.52832031250, 2.59863281250, 4.26123046875, 2.38281250000, 4.16503906250, -1.52636718750, 0.46728515625, 2.46337890625, -1.61376953125, 0.76367187500, -1.38330078125, -1.68896484375, 0.95458984375, -3.83203125000, 4.57861328125, 1.26220703125, -3.13623046875, 5.05615234375, -2.02783203125, 3.02783203125, 2.11083984375, 1.91357421875, 3.13330078125, -3.46679687500, 2.21484375000, 1.55078125000, 0.12744140625, -0.18115234375, 1.00097656250, -5.68652343750, -4.03173828125, 0.75585937500, -5.58300781250, 0.04882812500, -0.89941406250, -0.30761718750, 3.91113281250, 0.20361328125, 2.93505859375, -1.82080078125, 1.56738281250, 2.48388671875, -7.58642578125, 9.81054687500, -4.78906250000, 3.19775390625, -4.85546875000, -3.21728515625, -5.74609375000, -3.47216796875, 4.64355468750, -4.00976562500, 0.34423828125, 8.70312500000, 8.19970703125, 3.35693359375, 3.36376953125, 0.60742187500, -0.25878906250, 1.57275390625, -7.64648437500, 0.22021484375, -0.64404296875, 0.26074218750, -4.24902343750, -3.31494140625, -15.99951171875, -0.54296875000, 2.77050781250, 1.26904296875, 0.41406250000, 4.18896484375, -0.83349609375, 7.23486328125, 7.17968750000, -2.10644531250, 6.23779296875, -7.35986328125, -1.14501953125};
#endif

#endif
